digraph Tree {
node [shape=box] ;
0 [label="CreditHistory <= 0.5\ngini = 0.435\nsamples = 451\nvalue = [144, 307]\nclass = No"] ;
1 [label="LoanAmountLog <= 6.301\ngini = 0.104\nsamples = 73\nvalue = [69, 4]\nclass = Yes"] ;
0 -> 1 [labeldistance=2.5, labelangle=45, headlabel="True"] ;
2 [label="LoanAmountLog <= 4.86\ngini = 0.08\nsamples = 72\nvalue = [69, 3]\nclass = Yes"] ;
1 -> 2 ;
3 [label="gini = 0.0\nsamples = 42\nvalue = [42, 0]\nclass = Yes"] ;
2 -> 3 ;
4 [label="LoanAmountLog <= 4.875\ngini = 0.18\nsamples = 30\nvalue = [27, 3]\nclass = Yes"] ;
2 -> 4 ;
5 [label="gini = 0.0\nsamples = 1\nvalue = [0, 1]\nclass = No"] ;
4 -> 5 ;
6 [label="PropertyArea_Semiurban <= 0.5\ngini = 0.128\nsamples = 29\nvalue = [27, 2]\nclass = Yes"] ;
4 -> 6 ;
7 [label="gini = 0.0\nsamples = 20\nvalue = [20, 0]\nclass = Yes"] ;
6 -> 7 ;
8 [label="gini = 0.346\nsamples = 9\nvalue = [7, 2]\nclass = Yes"] ;
6 -> 8 ;
9 [label="gini = 0.0\nsamples = 1\nvalue = [0, 1]\nclass = No"] ;
1 -> 9 ;
10 [label="IncomeLog <= 9.896\ngini = 0.318\nsamples = 378\nvalue = [75, 303]\nclass = No"] ;
0 -> 10 [labeldistance=2.5, labelangle=-45, headlabel="False"] ;
11 [label="IncomeLog <= 7.775\ngini = 0.305\nsamples = 368\nvalue = [69, 299]\nclass = No"] ;
10 -> 11 ;
12 [label="PropertyArea_Semiurban <= 0.5\ngini = 0.469\nsamples = 8\nvalue = [5, 3]\nclass = Yes"] ;
11 -> 12 ;
13 [label="Education_Graduate <= 0.5\ngini = 0.278\nsamples = 6\nvalue = [5, 1]\nclass = Yes"] ;
12 -> 13 ;
14 [label="gini = 0.444\nsamples = 3\nvalue = [2, 1]\nclass = Yes"] ;
13 -> 14 ;
15 [label="gini = 0.0\nsamples = 3\nvalue = [3, 0]\nclass = Yes"] ;
13 -> 15 ;
16 [label="gini = 0.0\nsamples = 2\nvalue = [0, 2]\nclass = No"] ;
12 -> 16 ;
17 [label="LoanAmountTerm <= 48.0\ngini = 0.292\nsamples = 360\nvalue = [64, 296]\nclass = No"] ;
11 -> 17 ;
18 [label="gini = 0.0\nsamples = 2\nvalue = [2, 0]\nclass = Yes"] ;
17 -> 18 ;
19 [label="Married_Yes <= 0.5\ngini = 0.286\nsamples = 358\nvalue = [62, 296]\nclass = No"] ;
17 -> 19 ;
20 [label="gini = 0.354\nsamples = 122\nvalue = [28, 94]\nclass = No"] ;
19 -> 20 ;
21 [label="gini = 0.247\nsamples = 236\nvalue = [34, 202]\nclass = No"] ;
19 -> 21 ;
22 [label="Dependents <= 2.0\ngini = 0.48\nsamples = 10\nvalue = [6, 4]\nclass = Yes"] ;
10 -> 22 ;
23 [label="LoanAmountLog <= 4.816\ngini = 0.375\nsamples = 8\nvalue = [6, 2]\nclass = Yes"] ;
22 -> 23 ;
24 [label="PropertyArea_Semiurban <= 0.5\ngini = 0.444\nsamples = 3\nvalue = [1, 2]\nclass = No"] ;
23 -> 24 ;
25 [label="gini = 0.0\nsamples = 1\nvalue = [1, 0]\nclass = Yes"] ;
24 -> 25 ;
26 [label="gini = 0.0\nsamples = 2\nvalue = [0, 2]\nclass = No"] ;
24 -> 26 ;
27 [label="gini = 0.0\nsamples = 5\nvalue = [5, 0]\nclass = Yes"] ;
23 -> 27 ;
28 [label="gini = 0.0\nsamples = 2\nvalue = [0, 2]\nclass = No"] ;
22 -> 28 ;
}